// Neural Network File Format by Kyle Julian, Stanford 2016
4,128,2,128,
128,16,8,8,2,
0,
0.0,0.0,0.0,0.0,0.0,0.0,0.0,0.0,0.0,0.0,0.0,0.0,0.0,0.0,0.0,0.0,0.0,0.0,0.0,0.0,0.0,0.0,0.0,0.0,0.0,0.0,0.0,0.0,0.0,0.0,0.0,0.0,0.0,0.0,0.0,0.0,0.0,0.0,0.0,0.0,0.0,0.0,0.0,0.0,0.0,0.0,0.0,0.0,0.0,0.0,0.0,0.0,0.0,0.0,0.0,0.0,0.0,0.0,0.0,0.0,0.0,0.0,0.0,0.0,0.0,0.0,0.0,0.0,0.0,0.0,0.0,0.0,0.0,0.0,0.0,0.0,0.0,0.0,0.0,0.0,0.0,0.0,0.0,0.0,0.0,0.0,0.0,0.0,0.0,0.0,0.0,0.0,0.0,0.0,0.0,0.0,0.0,0.0,0.0,0.0,0.0,0.0,0.0,0.0,0.0,0.0,0.0,0.0,0.0,0.0,0.0,0.0,0.0,0.0,0.0,0.0,0.0,0.0,0.0,0.0,0.0,0.0,0.0,0.0,0.0,0.0,0.0,0.0,
1.0,1.0,1.0,1.0,1.0,1.0,1.0,1.0,1.0,1.0,1.0,1.0,1.0,1.0,1.0,1.0,1.0,1.0,1.0,1.0,1.0,1.0,1.0,1.0,1.0,1.0,1.0,1.0,1.0,1.0,1.0,1.0,1.0,1.0,1.0,1.0,1.0,1.0,1.0,1.0,1.0,1.0,1.0,1.0,1.0,1.0,1.0,1.0,1.0,1.0,1.0,1.0,1.0,1.0,1.0,1.0,1.0,1.0,1.0,1.0,1.0,1.0,1.0,1.0,1.0,1.0,1.0,1.0,1.0,1.0,1.0,1.0,1.0,1.0,1.0,1.0,1.0,1.0,1.0,1.0,1.0,1.0,1.0,1.0,1.0,1.0,1.0,1.0,1.0,1.0,1.0,1.0,1.0,1.0,1.0,1.0,1.0,1.0,1.0,1.0,1.0,1.0,1.0,1.0,1.0,1.0,1.0,1.0,1.0,1.0,1.0,1.0,1.0,1.0,1.0,1.0,1.0,1.0,1.0,1.0,1.0,1.0,1.0,1.0,1.0,1.0,1.0,1.0,
0.0,0.0,0.0,0.0,0.0,0.0,0.0,0.0,0.0,0.0,0.0,0.0,0.0,0.0,0.0,0.0,0.0,0.0,0.0,0.0,0.0,0.0,0.0,0.0,0.0,0.0,0.0,0.0,0.0,0.0,0.0,0.0,0.0,0.0,0.0,0.0,0.0,0.0,0.0,0.0,0.0,0.0,0.0,0.0,0.0,0.0,0.0,0.0,0.0,0.0,0.0,0.0,0.0,0.0,0.0,0.0,0.0,0.0,0.0,0.0,0.0,0.0,0.0,0.0,0.0,0.0,0.0,0.0,0.0,0.0,0.0,0.0,0.0,0.0,0.0,0.0,0.0,0.0,0.0,0.0,0.0,0.0,0.0,0.0,0.0,0.0,0.0,0.0,0.0,0.0,0.0,0.0,0.0,0.0,0.0,0.0,0.0,0.0,0.0,0.0,0.0,0.0,0.0,0.0,0.0,0.0,0.0,0.0,0.0,0.0,0.0,0.0,0.0,0.0,0.0,0.0,0.0,0.0,0.0,0.0,0.0,0.0,0.0,0.0,0.0,0.0,0.0,0.0,0.0,
1.0,1.0,1.0,1.0,1.0,1.0,1.0,1.0,1.0,1.0,1.0,1.0,1.0,1.0,1.0,1.0,1.0,1.0,1.0,1.0,1.0,1.0,1.0,1.0,1.0,1.0,1.0,1.0,1.0,1.0,1.0,1.0,1.0,1.0,1.0,1.0,1.0,1.0,1.0,1.0,1.0,1.0,1.0,1.0,1.0,1.0,1.0,1.0,1.0,1.0,1.0,1.0,1.0,1.0,1.0,1.0,1.0,1.0,1.0,1.0,1.0,1.0,1.0,1.0,1.0,1.0,1.0,1.0,1.0,1.0,1.0,1.0,1.0,1.0,1.0,1.0,1.0,1.0,1.0,1.0,1.0,1.0,1.0,1.0,1.0,1.0,1.0,1.0,1.0,1.0,1.0,1.0,1.0,1.0,1.0,1.0,1.0,1.0,1.0,1.0,1.0,1.0,1.0,1.0,1.0,1.0,1.0,1.0,1.0,1.0,1.0,1.0,1.0,1.0,1.0,1.0,1.0,1.0,1.0,1.0,1.0,1.0,1.0,1.0,1.0,1.0,1.0,1.0,1.0,
7.48662e-01,3.01989e-01,4.87221e-01,1.90320e-01,-5.17179e-01,3.81475e-03,-1.11412e-01,-4.30859e-01,0.00000e+00,0.00000e+00,0.00000e+00,0.00000e+00,0.00000e+00,0.00000e+00,0.00000e+00,0.00000e+00,1.78491e+00,1.57235e+00,5.71604e-01,2.68553e-04,-1.50109e+00,-1.39798e+00,-9.41530e-01,-9.84068e-01,0.00000e+00,0.00000e+00,0.00000e+00,0.00000e+00,0.00000e+00,0.00000e+00,0.00000e+00,0.00000e+00,9.22554e-01,3.77135e-01,4.97848e-01,2.77836e-01,-4.80767e-02,-1.54881e-01,-3.61308e-01,-2.09436e-01,0.00000e+00,0.00000e+00,0.00000e+00,0.00000e+00,0.00000e+00,0.00000e+00,0.00000e+00,0.00000e+00,8.06377e-01,1.08095e-02,-6.65592e-02,7.86510e-02,-4.31482e-02,8.27223e-02,3.34896e-02,-9.42545e-02,0.00000e+00,0.00000e+00,0.00000e+00,0.00000e+00,0.00000e+00,0.00000e+00,0.00000e+00,0.00000e+00,6.64545e-01,2.45075e-01,2.42262e-02,-1.32060e-01,-1.06434e-01,-2.73827e-01,-4.75959e-01,-1.77590e-01,0.00000e+00,0.00000e+00,0.00000e+00,0.00000e+00,0.00000e+00,0.00000e+00,0.00000e+00,0.00000e+00,3.38863e-01,2.32029e-02,1.39807e-01,-1.49609e-02,7.81833e-03,-9.16171e-02,-2.17731e-01,-2.42466e-01,0.00000e+00,0.00000e+00,0.00000e+00,0.00000e+00,0.00000e+00,0.00000e+00,0.00000e+00,0.00000e+00,2.01278e-01,-2.87507e-02,-1.47499e-02,4.11829e-02,-7.83959e-02,-8.39775e-02,-1.14038e-01,-8.57670e-02,0.00000e+00,0.00000e+00,0.00000e+00,0.00000e+00,0.00000e+00,0.00000e+00,0.00000e+00,0.00000e+00,1.67421e-01,1.27387e-01,1.99770e-02,1.00671e-01,8.44971e-02,7.13340e-03,-1.31692e-01,3.55462e-02,0.00000e+00,0.00000e+00,0.00000e+00,0.00000e+00,0.00000e+00,0.00000e+00,0.00000e+00,0.00000e+00,
2.02826e-02,-7.54005e-02,-9.10812e-02,-6.94246e-02,-4.51450e-02,7.10928e-02,-5.92651e-02,-7.15399e-02,0.00000e+00,0.00000e+00,0.00000e+00,0.00000e+00,0.00000e+00,0.00000e+00,0.00000e+00,0.00000e+00,6.46298e-02,-9.84158e-02,7.41887e-02,-6.27862e-02,6.04624e-02,2.15444e-02,-7.31203e-02,-4.10196e-02,0.00000e+00,0.00000e+00,0.00000e+00,0.00000e+00,0.00000e+00,0.00000e+00,0.00000e+00,0.00000e+00,-9.76454e-02,-4.53044e-02,-6.41136e-02,-2.61151e-02,6.57469e-03,-3.25069e-02,-4.40970e-02,-8.86243e-02,0.00000e+00,0.00000e+00,0.00000e+00,0.00000e+00,0.00000e+00,0.00000e+00,0.00000e+00,0.00000e+00,1.81014e-02,1.42371e-02,1.27880e-02,9.08703e-02,6.94583e-03,-9.70048e-02,1.94526e-02,-9.22228e-03,0.00000e+00,0.00000e+00,0.00000e+00,0.00000e+00,0.00000e+00,0.00000e+00,0.00000e+00,0.00000e+00,-4.26433e-02,2.43744e-02,-8.25161e-02,-5.29050e-02,-1.14136e-02,-9.69982e-03,7.43491e-02,-6.73516e-02,0.00000e+00,0.00000e+00,0.00000e+00,0.00000e+00,0.00000e+00,0.00000e+00,0.00000e+00,0.00000e+00,6.82241e-03,-1.59843e-02,1.56702e-02,-2.65511e-02,7.15206e-02,2.06449e-02,-2.89174e-03,2.75848e-02,0.00000e+00,0.00000e+00,0.00000e+00,0.00000e+00,0.00000e+00,0.00000e+00,0.00000e+00,0.00000e+00,9.87226e-02,-7.84808e-03,-6.81991e-02,7.08318e-02,1.49734e-02,-1.59164e-02,3.90892e-02,-5.09285e-02,0.00000e+00,0.00000e+00,0.00000e+00,0.00000e+00,0.00000e+00,0.00000e+00,0.00000e+00,0.00000e+00,-6.92880e-02,1.06985e-02,-7.91009e-02,-5.64939e-02,5.60148e-02,2.25337e-02,-7.07987e-02,2.33696e-02,0.00000e+00,0.00000e+00,0.00000e+00,0.00000e+00,0.00000e+00,0.00000e+00,0.00000e+00,0.00000e+00,
-7.58945e-01,-5.60987e-01,-6.00651e-02,1.98041e-01,3.37954e-01,-1.75281e-02,-6.68755e-02,1.86164e-02,0.00000e+00,0.00000e+00,0.00000e+00,0.00000e+00,0.00000e+00,0.00000e+00,0.00000e+00,0.00000e+00,7.71309e-01,4.07528e-01,3.83475e-01,4.16792e-02,1.74476e-01,-4.35765e-01,-1.03999e+00,-1.06981e+00,0.00000e+00,0.00000e+00,0.00000e+00,0.00000e+00,0.00000e+00,0.00000e+00,0.00000e+00,0.00000e+00,-1.03822e-01,-2.90221e-01,-1.65453e-01,-4.09475e-02,1.18724e-02,9.88379e-02,4.33186e-01,6.46544e-01,0.00000e+00,0.00000e+00,0.00000e+00,0.00000e+00,0.00000e+00,0.00000e+00,0.00000e+00,0.00000e+00,-2.54466e-01,-8.43382e-02,7.93703e-02,5.85639e-02,1.09105e-01,6.07060e-02,2.83961e-01,6.33958e-01,0.00000e+00,0.00000e+00,0.00000e+00,0.00000e+00,0.00000e+00,0.00000e+00,0.00000e+00,0.00000e+00,-1.18915e-01,-1.92756e-01,-1.07034e-01,7.70559e-02,1.66127e-01,1.01529e-01,4.36208e-01,7.65992e-01,0.00000e+00,0.00000e+00,0.00000e+00,0.00000e+00,0.00000e+00,0.00000e+00,0.00000e+00,0.00000e+00,-5.11474e-02,-2.70349e-04,5.91389e-02,-6.28498e-02,1.73554e-01,5.56576e-02,2.64836e-01,6.75273e-01,0.00000e+00,0.00000e+00,0.00000e+00,0.00000e+00,0.00000e+00,0.00000e+00,0.00000e+00,0.00000e+00,-2.44467e-02,-2.17129e-02,2.21891e-01,1.14833e-01,1.63042e-01,1.76504e-01,2.07890e-01,4.83991e-01,0.00000e+00,0.00000e+00,0.00000e+00,0.00000e+00,0.00000e+00,0.00000e+00,0.00000e+00,0.00000e+00,2.14564e-01,9.43745e-02,1.06456e-01,2.46619e-01,3.43524e-01,3.83924e-01,3.28994e-01,4.75690e-01,0.00000e+00,0.00000e+00,0.00000e+00,0.00000e+00,0.00000e+00,0.00000e+00,0.00000e+00,0.00000e+00,
-2.63063e-02,-4.45211e-02,-4.64022e-05,-9.90471e-02,5.14853e-02,-8.93774e-02,-7.11805e-02,-1.61219e-02,0.00000e+00,0.00000e+00,0.00000e+00,0.00000e+00,0.00000e+00,0.00000e+00,0.00000e+00,0.00000e+00,6.69429e-02,-3.00462e-02,-9.12062e-02,7.88530e-02,-9.74777e-02,8.17239e-02,5.13509e-04,-2.13349e-02,0.00000e+00,0.00000e+00,0.00000e+00,0.00000e+00,0.00000e+00,0.00000e+00,0.00000e+00,0.00000e+00,9.93984e-02,-1.42217e-02,1.46088e-02,1.02059e-01,-3.73579e-02,6.26868e-02,6.93297e-02,2.83686e-02,0.00000e+00,0.00000e+00,0.00000e+00,0.00000e+00,0.00000e+00,0.00000e+00,0.00000e+00,0.00000e+00,2.14669e-02,1.26816e-02,-9.04222e-02,-2.76599e-02,-3.35226e-02,-1.87721e-02,5.59840e-02,1.58898e-02,0.00000e+00,0.00000e+00,0.00000e+00,0.00000e+00,0.00000e+00,0.00000e+00,0.00000e+00,0.00000e+00,-6.88050e-02,5.60050e-02,-4.47763e-03,5.14097e-02,8.90989e-02,8.53509e-02,3.28269e-03,2.68370e-05,0.00000e+00,0.00000e+00,0.00000e+00,0.00000e+00,0.00000e+00,0.00000e+00,0.00000e+00,0.00000e+00,-8.35666e-02,8.99960e-02,9.54649e-02,-4.13537e-02,6.59062e-02,9.06255e-03,-2.09201e-02,-7.23302e-02,0.00000e+00,0.00000e+00,0.00000e+00,0.00000e+00,0.00000e+00,0.00000e+00,0.00000e+00,0.00000e+00,-9.45754e-02,2.60699e-02,7.55838e-02,-3.41258e-02,-3.95326e-02,-5.16075e-02,6.65376e-02,-7.85004e-02,0.00000e+00,0.00000e+00,0.00000e+00,0.00000e+00,0.00000e+00,0.00000e+00,0.00000e+00,0.00000e+00,-9.40172e-02,-3.47884e-02,-7.71252e-02,-7.79754e-02,4.48666e-02,-9.47388e-02,-9.05210e-02,-1.80235e-02,0.00000e+00,0.00000e+00,0.00000e+00,0.00000e+00,0.00000e+00,0.00000e+00,0.00000e+00,0.00000e+00,
2.73907e-01,5.75482e-02,2.37409e-01,8.25894e-02,-2.79653e-01,1.50754e-01,2.15893e-01,1.17304e+00,0.00000e+00,0.00000e+00,0.00000e+00,0.00000e+00,0.00000e+00,0.00000e+00,0.00000e+00,0.00000e+00,-8.46125e-01,-8.32166e-01,-6.78956e-01,-5.72163e-01,-1.37853e+00,-7.34260e-01,-4.55583e-01,1.49533e-01,0.00000e+00,0.00000e+00,0.00000e+00,0.00000e+00,0.00000e+00,0.00000e+00,0.00000e+00,0.00000e+00,3.00577e-01,3.34337e-01,2.67830e-01,1.02533e-01,-1.57718e-01,1.95281e-01,4.10190e-01,1.10406e+00,0.00000e+00,0.00000e+00,0.00000e+00,0.00000e+00,0.00000e+00,0.00000e+00,0.00000e+00,0.00000e+00,5.39172e-01,-2.48140e-02,8.46762e-02,6.65191e-02,-1.04561e-01,-2.39794e-01,-7.04026e-02,1.45841e-01,0.00000e+00,0.00000e+00,0.00000e+00,0.00000e+00,0.00000e+00,0.00000e+00,0.00000e+00,0.00000e+00,4.74912e-01,1.07369e-01,-7.84717e-02,7.16875e-04,5.72079e-02,-4.54028e-02,5.93208e-02,2.76603e-01,0.00000e+00,0.00000e+00,0.00000e+00,0.00000e+00,0.00000e+00,0.00000e+00,0.00000e+00,0.00000e+00,2.44320e-01,-3.02931e-02,9.95926e-02,5.52987e-03,-4.16183e-04,-4.59848e-02,-7.12536e-02,1.03218e-01,0.00000e+00,0.00000e+00,0.00000e+00,0.00000e+00,0.00000e+00,0.00000e+00,0.00000e+00,0.00000e+00,1.86236e-01,-1.78534e-02,1.70746e-02,5.55000e-03,1.85679e-02,3.18442e-02,1.86837e-02,4.24153e-02,0.00000e+00,0.00000e+00,0.00000e+00,0.00000e+00,0.00000e+00,0.00000e+00,0.00000e+00,0.00000e+00,1.44212e-01,2.44425e-01,1.81648e-01,1.72531e-01,2.02378e-01,1.40171e-01,9.33696e-02,1.28148e-01,0.00000e+00,0.00000e+00,0.00000e+00,0.00000e+00,0.00000e+00,0.00000e+00,0.00000e+00,0.00000e+00,
-1.40248e-01,-1.31536e-01,-2.63518e-01,-5.36950e-01,-7.71480e-01,-5.84184e-01,-7.09646e-01,-1.43545e+00,0.00000e+00,0.00000e+00,0.00000e+00,0.00000e+00,0.00000e+00,0.00000e+00,0.00000e+00,0.00000e+00,-2.15911e-01,5.03692e-01,3.37849e-01,1.28847e-01,-2.76317e-01,-6.25324e-01,3.82221e-01,2.22451e-02,0.00000e+00,0.00000e+00,0.00000e+00,0.00000e+00,0.00000e+00,0.00000e+00,0.00000e+00,0.00000e+00,6.16792e-01,5.52375e-01,5.20976e-01,1.38962e-01,-1.51439e-01,-1.41203e-01,-6.45227e-01,-1.45186e+00,0.00000e+00,0.00000e+00,0.00000e+00,0.00000e+00,0.00000e+00,0.00000e+00,0.00000e+00,0.00000e+00,-1.58162e-01,3.71407e-01,-7.98017e-02,2.49523e-02,5.18861e-02,5.13626e-01,7.87926e-01,5.10198e-01,0.00000e+00,0.00000e+00,0.00000e+00,0.00000e+00,0.00000e+00,0.00000e+00,0.00000e+00,0.00000e+00,5.90639e-02,2.96169e-02,4.16086e-01,4.57234e-01,9.85033e-02,-1.62743e-01,2.25406e-01,3.19900e-01,0.00000e+00,0.00000e+00,0.00000e+00,0.00000e+00,0.00000e+00,0.00000e+00,0.00000e+00,0.00000e+00,5.26003e-01,1.78417e-01,-5.86782e-02,1.52433e-01,3.53887e-01,1.62152e-01,2.92979e-01,5.85396e-01,0.00000e+00,0.00000e+00,0.00000e+00,0.00000e+00,0.00000e+00,0.00000e+00,0.00000e+00,0.00000e+00,3.55410e-01,1.32811e-01,3.87598e-01,2.36078e-01,3.18473e-01,3.90994e-01,3.10177e-01,4.10371e-01,0.00000e+00,0.00000e+00,0.00000e+00,0.00000e+00,0.00000e+00,0.00000e+00,0.00000e+00,0.00000e+00,4.13710e-01,3.77076e-01,3.30546e-01,6.34525e-01,5.45579e-01,4.91772e-01,5.11226e-01,5.87901e-01,0.00000e+00,0.00000e+00,0.00000e+00,0.00000e+00,0.00000e+00,0.00000e+00,0.00000e+00,0.00000e+00,
1.10592e-01,-1.25463e-01,1.74938e-01,1.73798e-01,6.86696e-02,2.63349e-01,2.22824e-01,-4.47912e-01,0.00000e+00,0.00000e+00,0.00000e+00,0.00000e+00,0.00000e+00,0.00000e+00,0.00000e+00,0.00000e+00,1.68961e+00,1.60526e+00,9.02974e-01,9.02306e-01,2.07818e+00,1.24471e+00,6.12541e-01,4.09398e-01,0.00000e+00,0.00000e+00,0.00000e+00,0.00000e+00,0.00000e+00,0.00000e+00,0.00000e+00,0.00000e+00,6.00797e-01,9.77789e-03,1.75704e-01,6.69451e-02,1.76606e-01,-4.08402e-01,-1.49712e-01,2.59162e-01,0.00000e+00,0.00000e+00,0.00000e+00,0.00000e+00,0.00000e+00,0.00000e+00,0.00000e+00,0.00000e+00,2.38336e-01,6.04807e-02,-8.80464e-02,3.47995e-02,3.18500e-02,2.96633e-01,4.82815e-01,1.04852e-01,0.00000e+00,0.00000e+00,0.00000e+00,0.00000e+00,0.00000e+00,0.00000e+00,0.00000e+00,0.00000e+00,2.75723e-01,8.13277e-02,1.24701e-01,-5.44379e-02,-1.21419e-01,-6.95847e-02,-1.67437e-01,-5.42556e-02,0.00000e+00,0.00000e+00,0.00000e+00,0.00000e+00,0.00000e+00,0.00000e+00,0.00000e+00,0.00000e+00,5.15192e-02,2.86238e-02,-3.59393e-02,-7.31124e-02,3.06295e-02,7.27880e-02,-1.55464e-01,-3.25668e-01,0.00000e+00,0.00000e+00,0.00000e+00,0.00000e+00,0.00000e+00,0.00000e+00,0.00000e+00,0.00000e+00,5.74781e-02,-3.65409e-03,4.66125e-02,6.90465e-02,-2.08131e-01,9.14413e-04,-2.07219e-01,-7.38846e-02,0.00000e+00,0.00000e+00,0.00000e+00,0.00000e+00,0.00000e+00,0.00000e+00,0.00000e+00,0.00000e+00,-1.29386e-02,-6.76925e-02,-2.25135e-01,-7.20052e-02,-1.42727e-01,-1.36919e-01,-3.13861e-01,-1.03216e-01,0.00000e+00,0.00000e+00,0.00000e+00,0.00000e+00,0.00000e+00,0.00000e+00,0.00000e+00,0.00000e+00,
8.18725e-03,3.43160e-02,-2.00536e-03,-6.13554e-02,3.64804e-02,-9.28276e-02,2.71222e-02,-3.56394e-02,0.00000e+00,0.00000e+00,0.00000e+00,0.00000e+00,0.00000e+00,0.00000e+00,0.00000e+00,0.00000e+00,2.31251e-02,-7.00435e-02,-8.08098e-02,-7.09139e-02,3.66984e-02,-8.44324e-02,-2.17919e-02,3.65820e-02,0.00000e+00,0.00000e+00,0.00000e+00,0.00000e+00,0.00000e+00,0.00000e+00,0.00000e+00,0.00000e+00,-6.01255e-02,-9.15541e-02,-3.57217e-02,-2.42720e-02,4.16649e-02,6.54315e-02,-3.86910e-02,5.72929e-02,0.00000e+00,0.00000e+00,0.00000e+00,0.00000e+00,0.00000e+00,0.00000e+00,0.00000e+00,0.00000e+00,-6.49380e-02,9.66665e-02,-2.94267e-02,-9.25708e-02,8.12929e-03,8.06198e-02,-1.40561e-02,5.18567e-02,0.00000e+00,0.00000e+00,0.00000e+00,0.00000e+00,0.00000e+00,0.00000e+00,0.00000e+00,0.00000e+00,-4.77583e-02,6.74718e-03,6.78691e-02,-2.70819e-02,-6.65694e-02,9.46411e-02,6.87301e-02,5.62085e-02,0.00000e+00,0.00000e+00,0.00000e+00,0.00000e+00,0.00000e+00,0.00000e+00,0.00000e+00,0.00000e+00,-6.19621e-02,6.25456e-02,-1.02184e-01,3.63326e-02,6.76811e-02,9.96149e-02,8.00565e-03,3.76037e-02,0.00000e+00,0.00000e+00,0.00000e+00,0.00000e+00,0.00000e+00,0.00000e+00,0.00000e+00,0.00000e+00,-6.58655e-02,-1.01821e-01,-9.36089e-02,-1.22693e-02,-1.60693e-02,-9.93358e-02,-9.91158e-02,-3.13351e-02,0.00000e+00,0.00000e+00,0.00000e+00,0.00000e+00,0.00000e+00,0.00000e+00,0.00000e+00,0.00000e+00,-2.27874e-02,2.16521e-02,-8.96481e-02,-2.54717e-02,6.58097e-02,7.15683e-02,9.65187e-02,-8.97778e-02,0.00000e+00,0.00000e+00,0.00000e+00,0.00000e+00,0.00000e+00,0.00000e+00,0.00000e+00,0.00000e+00,
0.00000e+00,0.00000e+00,0.00000e+00,0.00000e+00,0.00000e+00,0.00000e+00,0.00000e+00,0.00000e+00,7.48662e-01,3.01989e-01,4.87221e-01,1.90320e-01,-5.17179e-01,3.81475e-03,-1.11412e-01,-4.30859e-01,0.00000e+00,0.00000e+00,0.00000e+00,0.00000e+00,0.00000e+00,0.00000e+00,0.00000e+00,0.00000e+00,1.78491e+00,1.57235e+00,5.71604e-01,2.68553e-04,-1.50109e+00,-1.39798e+00,-9.41530e-01,-9.84068e-01,0.00000e+00,0.00000e+00,0.00000e+00,0.00000e+00,0.00000e+00,0.00000e+00,0.00000e+00,0.00000e+00,9.22554e-01,3.77135e-01,4.97848e-01,2.77836e-01,-4.80767e-02,-1.54881e-01,-3.61308e-01,-2.09436e-01,0.00000e+00,0.00000e+00,0.00000e+00,0.00000e+00,0.00000e+00,0.00000e+00,0.00000e+00,0.00000e+00,8.06377e-01,1.08095e-02,-6.65592e-02,7.86510e-02,-4.31482e-02,8.27223e-02,3.34896e-02,-9.42545e-02,0.00000e+00,0.00000e+00,0.00000e+00,0.00000e+00,0.00000e+00,0.00000e+00,0.00000e+00,0.00000e+00,6.64545e-01,2.45075e-01,2.42262e-02,-1.32060e-01,-1.06434e-01,-2.73827e-01,-4.75959e-01,-1.77590e-01,0.00000e+00,0.00000e+00,0.00000e+00,0.00000e+00,0.00000e+00,0.00000e+00,0.00000e+00,0.00000e+00,3.38863e-01,2.32029e-02,1.39807e-01,-1.49609e-02,7.81833e-03,-9.16171e-02,-2.17731e-01,-2.42466e-01,0.00000e+00,0.00000e+00,0.00000e+00,0.00000e+00,0.00000e+00,0.00000e+00,0.00000e+00,0.00000e+00,2.01278e-01,-2.87507e-02,-1.47499e-02,4.11829e-02,-7.83959e-02,-8.39775e-02,-1.14038e-01,-8.57670e-02,0.00000e+00,0.00000e+00,0.00000e+00,0.00000e+00,0.00000e+00,0.00000e+00,0.00000e+00,0.00000e+00,1.67421e-01,1.27387e-01,1.99770e-02,1.00671e-01,8.44971e-02,7.13340e-03,-1.31692e-01,3.55462e-02,
0.00000e+00,0.00000e+00,0.00000e+00,0.00000e+00,0.00000e+00,0.00000e+00,0.00000e+00,0.00000e+00,2.02826e-02,-7.54005e-02,-9.10812e-02,-6.94246e-02,-4.51450e-02,7.10928e-02,-5.92651e-02,-7.15399e-02,0.00000e+00,0.00000e+00,0.00000e+00,0.00000e+00,0.00000e+00,0.00000e+00,0.00000e+00,0.00000e+00,6.46298e-02,-9.84158e-02,7.41887e-02,-6.27862e-02,6.04624e-02,2.15444e-02,-7.31203e-02,-4.10196e-02,0.00000e+00,0.00000e+00,0.00000e+00,0.00000e+00,0.00000e+00,0.00000e+00,0.00000e+00,0.00000e+00,-9.76454e-02,-4.53044e-02,-6.41136e-02,-2.61151e-02,6.57469e-03,-3.25069e-02,-4.40970e-02,-8.86243e-02,0.00000e+00,0.00000e+00,0.00000e+00,0.00000e+00,0.00000e+00,0.00000e+00,0.00000e+00,0.00000e+00,1.81014e-02,1.42371e-02,1.27880e-02,9.08703e-02,6.94583e-03,-9.70048e-02,1.94526e-02,-9.22228e-03,0.00000e+00,0.00000e+00,0.00000e+00,0.00000e+00,0.00000e+00,0.00000e+00,0.00000e+00,0.00000e+00,-4.26433e-02,2.43744e-02,-8.25161e-02,-5.29050e-02,-1.14136e-02,-9.69982e-03,7.43491e-02,-6.73516e-02,0.00000e+00,0.00000e+00,0.00000e+00,0.00000e+00,0.00000e+00,0.00000e+00,0.00000e+00,0.00000e+00,6.82241e-03,-1.59843e-02,1.56702e-02,-2.65511e-02,7.15206e-02,2.06449e-02,-2.89174e-03,2.75848e-02,0.00000e+00,0.00000e+00,0.00000e+00,0.00000e+00,0.00000e+00,0.00000e+00,0.00000e+00,0.00000e+00,9.87226e-02,-7.84808e-03,-6.81991e-02,7.08318e-02,1.49734e-02,-1.59164e-02,3.90892e-02,-5.09285e-02,0.00000e+00,0.00000e+00,0.00000e+00,0.00000e+00,0.00000e+00,0.00000e+00,0.00000e+00,0.00000e+00,-6.92880e-02,1.06985e-02,-7.91009e-02,-5.64939e-02,5.60148e-02,2.25337e-02,-7.07987e-02,2.33696e-02,
0.00000e+00,0.00000e+00,0.00000e+00,0.00000e+00,0.00000e+00,0.00000e+00,0.00000e+00,0.00000e+00,-7.58945e-01,-5.60987e-01,-6.00651e-02,1.98041e-01,3.37954e-01,-1.75281e-02,-6.68755e-02,1.86164e-02,0.00000e+00,0.00000e+00,0.00000e+00,0.00000e+00,0.00000e+00,0.00000e+00,0.00000e+00,0.00000e+00,7.71309e-01,4.07528e-01,3.83475e-01,4.16792e-02,1.74476e-01,-4.35765e-01,-1.03999e+00,-1.06981e+00,0.00000e+00,0.00000e+00,0.00000e+00,0.00000e+00,0.00000e+00,0.00000e+00,0.00000e+00,0.00000e+00,-1.03822e-01,-2.90221e-01,-1.65453e-01,-4.09475e-02,1.18724e-02,9.88379e-02,4.33186e-01,6.46544e-01,0.00000e+00,0.00000e+00,0.00000e+00,0.00000e+00,0.00000e+00,0.00000e+00,0.00000e+00,0.00000e+00,-2.54466e-01,-8.43382e-02,7.93703e-02,5.85639e-02,1.09105e-01,6.07060e-02,2.83961e-01,6.33958e-01,0.00000e+00,0.00000e+00,0.00000e+00,0.00000e+00,0.00000e+00,0.00000e+00,0.00000e+00,0.00000e+00,-1.18915e-01,-1.92756e-01,-1.07034e-01,7.70559e-02,1.66127e-01,1.01529e-01,4.36208e-01,7.65992e-01,0.00000e+00,0.00000e+00,0.00000e+00,0.00000e+00,0.00000e+00,0.00000e+00,0.00000e+00,0.00000e+00,-5.11474e-02,-2.70349e-04,5.91389e-02,-6.28498e-02,1.73554e-01,5.56576e-02,2.64836e-01,6.75273e-01,0.00000e+00,0.00000e+00,0.00000e+00,0.00000e+00,0.00000e+00,0.00000e+00,0.00000e+00,0.00000e+00,-2.44467e-02,-2.17129e-02,2.21891e-01,1.14833e-01,1.63042e-01,1.76504e-01,2.07890e-01,4.83991e-01,0.00000e+00,0.00000e+00,0.00000e+00,0.00000e+00,0.00000e+00,0.00000e+00,0.00000e+00,0.00000e+00,2.14564e-01,9.43745e-02,1.06456e-01,2.46619e-01,3.43524e-01,3.83924e-01,3.28994e-01,4.75690e-01,
0.00000e+00,0.00000e+00,0.00000e+00,0.00000e+00,0.00000e+00,0.00000e+00,0.00000e+00,0.00000e+00,-2.63063e-02,-4.45211e-02,-4.64022e-05,-9.90471e-02,5.14853e-02,-8.93774e-02,-7.11805e-02,-1.61219e-02,0.00000e+00,0.00000e+00,0.00000e+00,0.00000e+00,0.00000e+00,0.00000e+00,0.00000e+00,0.00000e+00,6.69429e-02,-3.00462e-02,-9.12062e-02,7.88530e-02,-9.74777e-02,8.17239e-02,5.13509e-04,-2.13349e-02,0.00000e+00,0.00000e+00,0.00000e+00,0.00000e+00,0.00000e+00,0.00000e+00,0.00000e+00,0.00000e+00,9.93984e-02,-1.42217e-02,1.46088e-02,1.02059e-01,-3.73579e-02,6.26868e-02,6.93297e-02,2.83686e-02,0.00000e+00,0.00000e+00,0.00000e+00,0.00000e+00,0.00000e+00,0.00000e+00,0.00000e+00,0.00000e+00,2.14669e-02,1.26816e-02,-9.04222e-02,-2.76599e-02,-3.35226e-02,-1.87721e-02,5.59840e-02,1.58898e-02,0.00000e+00,0.00000e+00,0.00000e+00,0.00000e+00,0.00000e+00,0.00000e+00,0.00000e+00,0.00000e+00,-6.88050e-02,5.60050e-02,-4.47763e-03,5.14097e-02,8.90989e-02,8.53509e-02,3.28269e-03,2.68370e-05,0.00000e+00,0.00000e+00,0.00000e+00,0.00000e+00,0.00000e+00,0.00000e+00,0.00000e+00,0.00000e+00,-8.35666e-02,8.99960e-02,9.54649e-02,-4.13537e-02,6.59062e-02,9.06255e-03,-2.09201e-02,-7.23302e-02,0.00000e+00,0.00000e+00,0.00000e+00,0.00000e+00,0.00000e+00,0.00000e+00,0.00000e+00,0.00000e+00,-9.45754e-02,2.60699e-02,7.55838e-02,-3.41258e-02,-3.95326e-02,-5.16075e-02,6.65376e-02,-7.85004e-02,0.00000e+00,0.00000e+00,0.00000e+00,0.00000e+00,0.00000e+00,0.00000e+00,0.00000e+00,0.00000e+00,-9.40172e-02,-3.47884e-02,-7.71252e-02,-7.79754e-02,4.48666e-02,-9.47388e-02,-9.05210e-02,-1.80235e-02,
0.00000e+00,0.00000e+00,0.00000e+00,0.00000e+00,0.00000e+00,0.00000e+00,0.00000e+00,0.00000e+00,2.73907e-01,5.75482e-02,2.37409e-01,8.25894e-02,-2.79653e-01,1.50754e-01,2.15893e-01,1.17304e+00,0.00000e+00,0.00000e+00,0.00000e+00,0.00000e+00,0.00000e+00,0.00000e+00,0.00000e+00,0.00000e+00,-8.46125e-01,-8.32166e-01,-6.78956e-01,-5.72163e-01,-1.37853e+00,-7.34260e-01,-4.55583e-01,1.49533e-01,0.00000e+00,0.00000e+00,0.00000e+00,0.00000e+00,0.00000e+00,0.00000e+00,0.00000e+00,0.00000e+00,3.00577e-01,3.34337e-01,2.67830e-01,1.02533e-01,-1.57718e-01,1.95281e-01,4.10190e-01,1.10406e+00,0.00000e+00,0.00000e+00,0.00000e+00,0.00000e+00,0.00000e+00,0.00000e+00,0.00000e+00,0.00000e+00,5.39172e-01,-2.48140e-02,8.46762e-02,6.65191e-02,-1.04561e-01,-2.39794e-01,-7.04026e-02,1.45841e-01,0.00000e+00,0.00000e+00,0.00000e+00,0.00000e+00,0.00000e+00,0.00000e+00,0.00000e+00,0.00000e+00,4.74912e-01,1.07369e-01,-7.84717e-02,7.16875e-04,5.72079e-02,-4.54028e-02,5.93208e-02,2.76603e-01,0.00000e+00,0.00000e+00,0.00000e+00,0.00000e+00,0.00000e+00,0.00000e+00,0.00000e+00,0.00000e+00,2.44320e-01,-3.02931e-02,9.95926e-02,5.52987e-03,-4.16183e-04,-4.59848e-02,-7.12536e-02,1.03218e-01,0.00000e+00,0.00000e+00,0.00000e+00,0.00000e+00,0.00000e+00,0.00000e+00,0.00000e+00,0.00000e+00,1.86236e-01,-1.78534e-02,1.70746e-02,5.55000e-03,1.85679e-02,3.18442e-02,1.86837e-02,4.24153e-02,0.00000e+00,0.00000e+00,0.00000e+00,0.00000e+00,0.00000e+00,0.00000e+00,0.00000e+00,0.00000e+00,1.44212e-01,2.44425e-01,1.81648e-01,1.72531e-01,2.02378e-01,1.40171e-01,9.33696e-02,1.28148e-01,
0.00000e+00,0.00000e+00,0.00000e+00,0.00000e+00,0.00000e+00,0.00000e+00,0.00000e+00,0.00000e+00,-1.40248e-01,-1.31536e-01,-2.63518e-01,-5.36950e-01,-7.71480e-01,-5.84184e-01,-7.09646e-01,-1.43545e+00,0.00000e+00,0.00000e+00,0.00000e+00,0.00000e+00,0.00000e+00,0.00000e+00,0.00000e+00,0.00000e+00,-2.15911e-01,5.03692e-01,3.37849e-01,1.28847e-01,-2.76317e-01,-6.25324e-01,3.82221e-01,2.22451e-02,0.00000e+00,0.00000e+00,0.00000e+00,0.00000e+00,0.00000e+00,0.00000e+00,0.00000e+00,0.00000e+00,6.16792e-01,5.52375e-01,5.20976e-01,1.38962e-01,-1.51439e-01,-1.41203e-01,-6.45227e-01,-1.45186e+00,0.00000e+00,0.00000e+00,0.00000e+00,0.00000e+00,0.00000e+00,0.00000e+00,0.00000e+00,0.00000e+00,-1.58162e-01,3.71407e-01,-7.98017e-02,2.49523e-02,5.18861e-02,5.13626e-01,7.87926e-01,5.10198e-01,0.00000e+00,0.00000e+00,0.00000e+00,0.00000e+00,0.00000e+00,0.00000e+00,0.00000e+00,0.00000e+00,5.90639e-02,2.96169e-02,4.16086e-01,4.57234e-01,9.85033e-02,-1.62743e-01,2.25406e-01,3.19900e-01,0.00000e+00,0.00000e+00,0.00000e+00,0.00000e+00,0.00000e+00,0.00000e+00,0.00000e+00,0.00000e+00,5.26003e-01,1.78417e-01,-5.86782e-02,1.52433e-01,3.53887e-01,1.62152e-01,2.92979e-01,5.85396e-01,0.00000e+00,0.00000e+00,0.00000e+00,0.00000e+00,0.00000e+00,0.00000e+00,0.00000e+00,0.00000e+00,3.55410e-01,1.32811e-01,3.87598e-01,2.36078e-01,3.18473e-01,3.90994e-01,3.10177e-01,4.10371e-01,0.00000e+00,0.00000e+00,0.00000e+00,0.00000e+00,0.00000e+00,0.00000e+00,0.00000e+00,0.00000e+00,4.13710e-01,3.77076e-01,3.30546e-01,6.34525e-01,5.45579e-01,4.91772e-01,5.11226e-01,5.87901e-01,
0.00000e+00,0.00000e+00,0.00000e+00,0.00000e+00,0.00000e+00,0.00000e+00,0.00000e+00,0.00000e+00,1.10592e-01,-1.25463e-01,1.74938e-01,1.73798e-01,6.86696e-02,2.63349e-01,2.22824e-01,-4.47912e-01,0.00000e+00,0.00000e+00,0.00000e+00,0.00000e+00,0.00000e+00,0.00000e+00,0.00000e+00,0.00000e+00,1.68961e+00,1.60526e+00,9.02974e-01,9.02306e-01,2.07818e+00,1.24471e+00,6.12541e-01,4.09398e-01,0.00000e+00,0.00000e+00,0.00000e+00,0.00000e+00,0.00000e+00,0.00000e+00,0.00000e+00,0.00000e+00,6.00797e-01,9.77789e-03,1.75704e-01,6.69451e-02,1.76606e-01,-4.08402e-01,-1.49712e-01,2.59162e-01,0.00000e+00,0.00000e+00,0.00000e+00,0.00000e+00,0.00000e+00,0.00000e+00,0.00000e+00,0.00000e+00,2.38336e-01,6.04807e-02,-8.80464e-02,3.47995e-02,3.18500e-02,2.96633e-01,4.82815e-01,1.04852e-01,0.00000e+00,0.00000e+00,0.00000e+00,0.00000e+00,0.00000e+00,0.00000e+00,0.00000e+00,0.00000e+00,2.75723e-01,8.13277e-02,1.24701e-01,-5.44379e-02,-1.21419e-01,-6.95847e-02,-1.67437e-01,-5.42556e-02,0.00000e+00,0.00000e+00,0.00000e+00,0.00000e+00,0.00000e+00,0.00000e+00,0.00000e+00,0.00000e+00,5.15192e-02,2.86238e-02,-3.59393e-02,-7.31124e-02,3.06295e-02,7.27880e-02,-1.55464e-01,-3.25668e-01,0.00000e+00,0.00000e+00,0.00000e+00,0.00000e+00,0.00000e+00,0.00000e+00,0.00000e+00,0.00000e+00,5.74781e-02,-3.65409e-03,4.66125e-02,6.90465e-02,-2.08131e-01,9.14413e-04,-2.07219e-01,-7.38846e-02,0.00000e+00,0.00000e+00,0.00000e+00,0.00000e+00,0.00000e+00,0.00000e+00,0.00000e+00,0.00000e+00,-1.29386e-02,-6.76925e-02,-2.25135e-01,-7.20052e-02,-1.42727e-01,-1.36919e-01,-3.13861e-01,-1.03216e-01,
0.00000e+00,0.00000e+00,0.00000e+00,0.00000e+00,0.00000e+00,0.00000e+00,0.00000e+00,0.00000e+00,8.18725e-03,3.43160e-02,-2.00536e-03,-6.13554e-02,3.64804e-02,-9.28276e-02,2.71222e-02,-3.56394e-02,0.00000e+00,0.00000e+00,0.00000e+00,0.00000e+00,0.00000e+00,0.00000e+00,0.00000e+00,0.00000e+00,2.31251e-02,-7.00435e-02,-8.08098e-02,-7.09139e-02,3.66984e-02,-8.44324e-02,-2.17919e-02,3.65820e-02,0.00000e+00,0.00000e+00,0.00000e+00,0.00000e+00,0.00000e+00,0.00000e+00,0.00000e+00,0.00000e+00,-6.01255e-02,-9.15541e-02,-3.57217e-02,-2.42720e-02,4.16649e-02,6.54315e-02,-3.86910e-02,5.72929e-02,0.00000e+00,0.00000e+00,0.00000e+00,0.00000e+00,0.00000e+00,0.00000e+00,0.00000e+00,0.00000e+00,-6.49380e-02,9.66665e-02,-2.94267e-02,-9.25708e-02,8.12929e-03,8.06198e-02,-1.40561e-02,5.18567e-02,0.00000e+00,0.00000e+00,0.00000e+00,0.00000e+00,0.00000e+00,0.00000e+00,0.00000e+00,0.00000e+00,-4.77583e-02,6.74718e-03,6.78691e-02,-2.70819e-02,-6.65694e-02,9.46411e-02,6.87301e-02,5.62085e-02,0.00000e+00,0.00000e+00,0.00000e+00,0.00000e+00,0.00000e+00,0.00000e+00,0.00000e+00,0.00000e+00,-6.19621e-02,6.25456e-02,-1.02184e-01,3.63326e-02,6.76811e-02,9.96149e-02,8.00565e-03,3.76037e-02,0.00000e+00,0.00000e+00,0.00000e+00,0.00000e+00,0.00000e+00,0.00000e+00,0.00000e+00,0.00000e+00,-6.58655e-02,-1.01821e-01,-9.36089e-02,-1.22693e-02,-1.60693e-02,-9.93358e-02,-9.91158e-02,-3.13351e-02,0.00000e+00,0.00000e+00,0.00000e+00,0.00000e+00,0.00000e+00,0.00000e+00,0.00000e+00,0.00000e+00,-2.27874e-02,2.16521e-02,-8.96481e-02,-2.54717e-02,6.58097e-02,7.15683e-02,9.65187e-02,-8.97778e-02,
2.47100e-01,
-0.00000e+00,
-7.54119e-02,
-0.00000e+00,
-3.24993e-01,
-5.01269e-01,
-4.46801e-01,
-1.24541e-03,
2.47100e-01,
-0.00000e+00,
-7.54119e-02,
-0.00000e+00,
-3.24993e-01,
-5.01269e-01,
-4.46801e-01,
-1.24541e-03,
1.78131e+00,-2.95231e-01,4.08487e-01,1.37638e-01,-5.40451e-02,2.60614e-01,1.39302e-01,6.09663e-02,-7.37745e-01,-3.53072e-01,-6.39948e-01,4.47953e-03,3.12171e-01,-4.74344e-01,-4.92113e-01,-3.94581e-01,
-2.48119e-01,4.48840e-01,1.00592e-01,-4.88903e-01,4.00364e-03,-2.27747e-01,8.34105e-02,-1.31774e-01,2.66528e-01,2.91642e-01,3.04400e-01,-2.71233e-01,4.91998e-02,-3.11708e-01,-4.92833e-01,3.43255e-01,
-2.06439e-01,-4.94638e-01,3.52676e-01,-4.12724e-01,-4.42796e-01,2.40003e-01,-1.17526e-01,-4.95770e-01,-4.61769e-01,1.17699e-01,-4.46492e-01,-2.59168e-02,3.77277e-01,-2.41584e-01,-2.08027e-01,-9.48129e-02,
-1.39719e+00,-2.77783e-01,-4.37613e-01,3.41813e-01,5.93280e-01,-2.38985e-01,-5.09303e-01,-4.09856e-01,4.58289e-02,4.13610e-01,1.95454e-01,3.19608e-02,3.61782e-01,1.68541e-01,1.31187e+00,-1.60141e-01,
-3.71576e-02,-4.38284e-01,1.06272e-01,-9.70125e-03,1.13068e+00,5.17147e-01,1.24277e+00,-1.97380e-01,8.32570e-01,-3.90142e-01,-1.43098e+00,6.25306e-02,-8.56703e-01,-9.68926e-01,-7.96898e-03,-1.63550e-01,
2.92505e-01,-2.79385e-01,5.86729e-01,3.70763e-01,-5.92350e-01,-3.28453e-01,9.20298e-01,-2.68757e-01,-5.82943e-01,-4.00774e-01,-2.40315e-01,-3.26763e-01,8.78817e-01,-8.98614e-01,-3.07738e-01,-2.49605e-02,
-1.96186e+00,3.53397e-01,-2.74979e-01,4.62012e-01,1.68486e-01,4.13824e-01,9.47273e-01,-2.98276e-01,4.53408e-01,-3.15420e-01,9.93654e-01,3.28365e-01,2.54466e-03,-2.10171e-02,2.75315e-02,1.36789e-01,
9.46522e-01,4.12500e-01,8.70709e-01,4.53509e-02,-1.48825e-02,1.07648e+00,-7.74812e-02,1.52639e-01,-1.38400e-01,-3.87232e-02,1.52656e-01,2.30696e-02,1.27475e-01,3.06913e-01,-3.68379e-01,3.81993e-01,
1.82953e-01,
-0.00000e+00,
-5.50821e-03,
1.30513e-01,
2.68067e-02,
1.38775e-01,
-2.80927e-01,
1.76370e-01,
3.99530e-03,6.03081e-01,3.39088e-02,-5.44092e-01,-3.69632e-02,-3.34022e-01,-5.31870e-01,-5.21016e-01,
-2.00407e-01,-4.35041e-01,-2.39962e-01,-2.88471e-01,-8.86060e-03,-4.47085e-01,3.70178e-02,-5.86684e-02,
2.32422e+00,-5.32778e-01,4.30538e-01,-1.37951e+00,1.23843e-01,-2.88794e+00,1.67920e+00,-2.92397e-01,
6.01815e-01,2.04009e-01,5.93688e-01,-1.29774e-01,-3.82323e-01,1.95457e-01,-3.37776e-01,-3.42816e-01,
-4.09095e+00,-6.09175e-01,-6.90791e-02,-2.65790e+00,1.45441e+00,9.25262e-01,1.69779e-01,1.07913e-01,
-1.94133e+00,-3.63173e-01,4.70829e-02,-7.43788e-01,-1.82512e+00,-2.43958e-01,9.02061e-01,8.22007e-01,
-1.13131e+00,-5.70005e-01,2.53379e-01,-1.57126e+00,6.75489e-01,6.43339e-01,4.54624e-02,1.24930e+00,
1.20437e+00,4.27203e-01,2.00217e-03,-4.58182e-01,1.90859e+00,-2.52131e+00,1.03207e+00,-3.53600e-01,
-0.00000e+00,
-2.05866e-02,
-5.40807e-01,
-0.00000e+00,
4.00083e-01,
-1.51900e-01,
9.96045e-01,
-2.92160e-01,
2.86461e-01,-9.00473e-02,5.75124e-01,7.53193e-01,-5.76763e-01,-1.70198e+00,3.98164e-01,5.34035e-01,
-6.81787e-01,5.44558e-01,-3.66544e+00,6.04040e-01,2.52824e+00,2.44509e+00,1.27626e+00,-2.50419e+00,
-4.83850e-01,
1.84522e+00,
